{
  "inputs": [
    0.0,
    0.5,
    0.5,
    0.5,
    0.5,
    1.0,
    1.0,
    1.0,
    1.0,
    1.0
  ],
  "layers": [
    [
      {
        "bias": 1.21641e-16,
        "deltaW": [
          -2.05902e-37,
          6.08204e-17,
          6.08204e-17,
          6.08204e-17,
          6.08204e-17,
          1.21641e-16,
          1.21641e-16,
          1.21641e-16,
          1.21641e-16,
          1.21641e-16
        ],
        "weights": [
          0.808491,
          0.89978,
          -43.0366,
          2.60699,
          4.28386,
          48.8419,
          5.46515,
          4.7165,
          -42.7962,
          -1.10301
        ]
      },
      {
        "bias": 2.21873e-21,
        "deltaW": [
          3.047e-50,
          1.10937e-21,
          1.10937e-21,
          1.10937e-21,
          1.10937e-21,
          2.21873e-21,
          2.21873e-21,
          2.21873e-21,
          2.21873e-21,
          2.21873e-21
        ],
        "weights": [
          43.7007,
          41.189,
          -45.2647,
          -3.58051,
          -4.88528,
          -3.06718,
          1.74424,
          -0.554476,
          -1.87203,
          -5.33791
        ]
      },
      {
        "bias": 0.0,
        "deltaW": [
          0.0,
          0.0,
          0.0,
          0.0,
          0.0,
          0.0,
          0.0,
          0.0,
          0.0,
          0.0
        ],
        "weights": [
          -3.48684,
          -65.6471,
          16.5409,
          -14.5707,
          -17.017,
          -32.5462,
          34.5888,
          29.6696,
          27.488,
          31.141
        ]
      },
      {
        "bias": -2.31586e-24,
        "deltaW": [
          -5.34991e-60,
          -1.15793e-24,
          -1.15793e-24,
          -1.15793e-24,
          -1.15793e-24,
          -2.31586e-24,
          -2.31586e-24,
          -2.31586e-24,
          -2.31586e-24,
          -2.31586e-24
        ],
        "weights": [
          3.04796,
          1.50084,
          1.45191,
          2.78343,
          3.90616,
          2.13143,
          1.86698,
          2.72756,
          2.17785,
          7.12746
        ]
      },
      {
        "bias": -1.04732e-22,
        "deltaW": [
          -2.13727e-54,
          -5.23659e-23,
          -5.23659e-23,
          -5.23659e-23,
          -5.23659e-23,
          -1.04732e-22,
          -1.04732e-22,
          -1.04732e-22,
          -1.04732e-22,
          -1.04732e-22
        ],
        "weights": [
          2.75536,
          3.48047,
          2.86694,
          2.44524,
          0.971984,
          -0.0234806,
          1.22006,
          0.681444,
          3.01837,
          7.03947
        ]
      },
      {
        "bias": 0.0,
        "deltaW": [
          0.0,
          0.0,
          0.0,
          0.0,
          0.0,
          0.0,
          0.0,
          0.0,
          0.0,
          0.0
        ],
        "weights": [
          -0.551638,
          1.29999,
          1.07313,
          46.4578,
          -78.4353,
          41.6361,
          1.08455,
          2.39924,
          3.01158,
          4.50459
        ]
      },
      {
        "bias": -3.21309e-30,
        "deltaW": [
          1.94884e-79,
          -1.60654e-30,
          -1.60654e-30,
          -1.60654e-30,
          -1.60654e-30,
          -3.21309e-30,
          -3.21309e-30,
          -3.21309e-30,
          -3.21309e-30,
          -3.21309e-30
        ],
        "weights": [
          1.00187,
          -0.368919,
          -0.228694,
          1.77431,
          105.674,
          0.298544,
          45.3254,
          -30.2066,
          -32.9046,
          -1.5022
        ]
      },
      {
        "bias": -1.25601e-18,
        "deltaW": [
          1.96412e-52,
          -6.28005e-19,
          -6.28005e-19,
          -6.28005e-19,
          -6.28005e-19,
          -1.25601e-18,
          -1.25601e-18,
          -1.25601e-18,
          -1.25601e-18,
          -1.25601e-18
        ],
        "weights": [
          67.0428,
          -2.36436,
          2.22299,
          0.795806,
          -32.119,
          -1.43082,
          1.36863,
          -0.829619,
          0.499119,
          6.77285
        ]
      },
      {
        "bias": -1.35406e-23,
        "deltaW": [
          -5.15857e-59,
          -6.7703e-24,
          -6.7703e-24,
          -6.7703e-24,
          -6.7703e-24,
          -1.35406e-23,
          -1.35406e-23,
          -1.35406e-23,
          -1.35406e-23,
          -1.35406e-23
        ],
        "weights": [
          -3.99156,
          -0.299365,
          -2.64302,
          54.6971,
          52.1219,
          -55.0418,
          -5.01325,
          -3.7865,
          -1.42459,
          -5.93836
        ]
      },
      {
        "bias": 0.0,
        "deltaW": [
          0.0,
          0.0,
          0.0,
          0.0,
          0.0,
          0.0,
          0.0,
          0.0,
          0.0,
          0.0
        ],
        "weights": [
          -28.5334,
          2.55753,
          2.32079,
          0.934279,
          30.0211,
          0.113828,
          62.7274,
          1.94771,
          -29.4212,
          2.29288
        ]
      },
      {
        "bias": -1.69437e-15,
        "deltaW": [
          5.00254e-45,
          -8.47186e-16,
          -8.47186e-16,
          -8.47186e-16,
          -8.47186e-16,
          -1.69437e-15,
          -1.69437e-15,
          -1.69437e-15,
          -1.69437e-15,
          -1.69437e-15
        ],
        "weights": [
          -33.1535,
          -1.6391,
          10.2645,
          19.0805,
          -53.6005,
          13.3389,
          19.9775,
          15.0173,
          -48.9785,
          12.4938
        ]
      },
      {
        "bias": 0.0,
        "deltaW": [
          0.0,
          0.0,
          0.0,
          0.0,
          0.0,
          0.0,
          0.0,
          0.0,
          0.0,
          0.0
        ],
        "weights": [
          -30.7555,
          -4.43188,
          1.03793,
          28.3394,
          6.39195,
          2.95949,
          -7.57755,
          -18.6853,
          69.9002,
          1.95162
        ]
      },
      {
        "bias": 1.28561e-23,
        "deltaW": [
          4.36788e-51,
          6.42804e-24,
          6.42804e-24,
          6.42804e-24,
          6.42804e-24,
          1.28561e-23,
          1.28561e-23,
          1.28561e-23,
          1.28561e-23,
          1.28561e-23
        ],
        "weights": [
          -4.84567,
          50.8554,
          -54.7385,
          1.04469,
          -1.14468,
          -0.200325,
          5.05443,
          -0.0294315,
          2.15662,
          15.061
        ]
      },
      {
        "bias": 0.0,
        "deltaW": [
          0.0,
          0.0,
          0.0,
          0.0,
          0.0,
          0.0,
          0.0,
          0.0,
          0.0,
          0.0
        ],
        "weights": [
          -8.55374,
          10.1813,
          -5.36161,
          59.5067,
          -63.2807,
          51.44,
          -0.205857,
          1.60351,
          -0.869791,
          21.9838
        ]
      },
      {
        "bias": 2.42928e-20,
        "deltaW": [
          -1.85014e-59,
          1.21464e-20,
          1.21464e-20,
          1.21464e-20,
          1.21464e-20,
          2.42928e-20,
          2.42928e-20,
          2.42928e-20,
          2.42928e-20,
          2.42928e-20
        ],
        "weights": [
          -3.91136,
          37.2943,
          -3.90548,
          -0.19743,
          36.5623,
          -0.824592,
          -1.80277,
          -39.8065,
          -2.74649,
          -2.59362
        ]
      },
      {
        "bias": 0.0,
        "deltaW": [
          0.0,
          0.0,
          0.0,
          0.0,
          0.0,
          0.0,
          0.0,
          0.0,
          0.0,
          0.0
        ],
        "weights": [
          -11.1463,
          51.6895,
          -12.8886,
          -9.84625,
          43.8929,
          -10.8023,
          -32.0825,
          74.611,
          -16.8167,
          -10.718
        ]
      },
      {
        "bias": -1.96451e-26,
        "deltaW": [
          -1.51745e-58,
          -9.82256e-27,
          -9.82256e-27,
          -9.82256e-27,
          -9.82256e-27,
          -1.96451e-26,
          -1.96451e-26,
          -1.96451e-26,
          -1.96451e-26,
          -1.96451e-26
        ],
        "weights": [
          9.63891,
          2.26649,
          -5.7491,
          74.0363,
          -20.896,
          -35.6729,
          8.1575,
          2.12635,
          6.54411,
          -29.8655
        ]
      },
      {
        "bias": 0.0,
        "deltaW": [
          0.0,
          0.0,
          0.0,
          0.0,
          0.0,
          0.0,
          0.0,
          0.0,
          0.0,
          0.0
        ],
        "weights": [
          -0.31723,
          -4.13227,
          -2.43495,
          -6.0759,
          -4.59027,
          80.3335,
          -1.37752,
          -9.39991,
          -5.33978,
          0.567652
        ]
      },
      {
        "bias": 0.0,
        "deltaW": [
          0.0,
          0.0,
          0.0,
          0.0,
          0.0,
          0.0,
          0.0,
          0.0,
          0.0,
          0.0
        ],
        "weights": [
          -0.864463,
          5.68577,
          -60.006,
          -2.29069,
          5.849,
          67.6819,
          -1.58411,
          -5.41559,
          -2.94596,
          15.3496
        ]
      },
      {
        "bias": 6.77816e-33,
        "deltaW": [
          2.35324e-75,
          3.38908e-33,
          3.38908e-33,
          3.38908e-33,
          3.38908e-33,
          6.77816e-33,
          6.77816e-33,
          6.77816e-33,
          6.77816e-33,
          6.77816e-33
        ],
        "weights": [
          60.1676,
          -52.8437,
          -51.2754,
          -1.24293,
          3.09688,
          1.86188,
          4.03575,
          1.32699,
          -2.93895,
          4.42514
        ]
      },
      {
        "bias": -0.0,
        "deltaW": [
          -0.0,
          -0.0,
          -0.0,
          -0.0,
          -0.0,
          -0.0,
          -0.0,
          -0.0,
          -0.0,
          -0.0
        ],
        "weights": [
          32.2879,
          -3.09918,
          49.226,
          4.43863,
          20.8225,
          15.6643,
          6.12424,
          7.48536,
          6.62401,
          14.3587
        ]
      },
      {
        "bias": -2.46145e-21,
        "deltaW": [
          5.32866e-43,
          -1.23072e-21,
          -1.23072e-21,
          -1.23072e-21,
          -1.23072e-21,
          -2.46145e-21,
          -2.46145e-21,
          -2.46145e-21,
          -2.46145e-21,
          -2.46145e-21
        ],
        "weights": [
          -4.25207,
          15.2533,
          31.1722,
          27.6946,
          13.4584,
          -31.5259,
          -24.2152,
          7.80003,
          -7.6499,
          26.1982
        ]
      },
      {
        "bias": 6.28959e-31,
        "deltaW": [
          0.0,
          3.1448e-31,
          3.1448e-31,
          3.1448e-31,
          3.1448e-31,
          6.28959e-31,
          6.28959e-31,
          6.28959e-31,
          6.28959e-31,
          6.28959e-31
        ],
        "weights": [
          -28.0216,
          -26.3988,
          -36.5006,
          -5.25134,
          26.8431,
          24.968,
          24.6592,
          24.6384,
          27.3383,
          -44.9342
        ]
      },
      {
        "bias": 0.0,
        "deltaW": [
          0.0,
          0.0,
          0.0,
          0.0,
          0.0,
          0.0,
          0.0,
          0.0,
          0.0,
          0.0
        ],
        "weights": [
          35.2666,
          -2.18034,
          18.005,
          -55.908,
          -14.3553,
          15.3693,
          14.4355,
          8.11745,
          19.8341,
          22.8932
        ]
      },
      {
        "bias": 0.0,
        "deltaW": [
          0.0,
          0.0,
          0.0,
          0.0,
          0.0,
          0.0,
          0.0,
          0.0,
          0.0,
          0.0
        ],
        "weights": [
          1.67255,
          1.46573,
          -63.1359,
          -0.134138,
          0.537663,
          31.3208,
          1.43775,
          1.01896,
          68.4895,
          5.25754
        ]
      },
      {
        "bias": -6.14181e-30,
        "deltaW": [
          3.71466e-64,
          -3.07091e-30,
          -3.07091e-30,
          -3.07091e-30,
          -3.07091e-30,
          -6.14181e-30,
          -6.14181e-30,
          -6.14181e-30,
          -6.14181e-30,
          -6.14181e-30
        ],
        "weights": [
          6.75956,
          -51.0095,
          8.16839,
          3.46533,
          61.9814,
          4.50194,
          4.56525,
          -53.5399,
          5.99314,
          -7.01677
        ]
      },
      {
        "bias": -0.0,
        "deltaW": [
          -0.0,
          -0.0,
          -0.0,
          -0.0,
          -0.0,
          -0.0,
          -0.0,
          -0.0,
          -0.0,
          -0.0
        ],
        "weights": [
          -35.5883,
          0.149065,
          1.22173,
          -36.5528,
          0.202422,
          -1.15018,
          71.5976,
          -2.48315,
          0.0524321,
          -10.0588
        ]
      },
      {
        "bias": -0.0,
        "deltaW": [
          -0.0,
          0.0,
          -0.0,
          -0.0,
          -0.0,
          -0.0,
          -0.0,
          -0.0,
          -0.0,
          -0.0
        ],
        "weights": [
          -86.8423,
          38.4843,
          41.3463,
          -7.97786,
          5.48988,
          -5.77854,
          5.83709,
          3.60498,
          3.36697,
          23.4395
        ]
      },
      {
        "bias": 2.83366e-32,
        "deltaW": [
          0.0,
          1.41683e-32,
          1.41683e-32,
          1.41683e-32,
          1.41683e-32,
          2.83366e-32,
          2.83366e-32,
          2.83366e-32,
          2.83366e-32,
          2.83366e-32
        ],
        "weights": [
          -25.5872,
          -21.5055,
          -23.2708,
          66.6995,
          64.4944,
          61.4925,
          -26.0019,
          -16.8331,
          -22.5081,
          -4.22552
        ]
      },
      {
        "bias": 3.13173e-30,
        "deltaW": [
          0.0,
          1.56587e-30,
          1.56587e-30,
          1.56587e-30,
          1.56587e-30,
          3.13173e-30,
          3.13173e-30,
          3.13173e-30,
          3.13173e-30,
          3.13173e-30
        ],
        "weights": [
          -43.9433,
          67.0371,
          15.6543,
          1.5846,
          2.02971,
          -1.34919,
          0.951021,
          -1.55789,
          0.127047,
          -5.89248
        ]
      },
      {
        "bias": -1.60879e-44,
        "deltaW": [
          -2.74099e-122,
          -8.04397e-45,
          -8.04397e-45,
          -8.04397e-45,
          -8.04397e-45,
          -1.60879e-44,
          -1.60879e-44,
          -1.60879e-44,
          -1.60879e-44,
          -1.60879e-44
        ],
        "weights": [
          21.143,
          20.6758,
          -59.3065,
          21.9092,
          21.3628,
          -53.3051,
          20.6046,
          21.2668,
          -63.4785,
          5.79389
        ]
      },
      {
        "bias": -3.52585e-53,
        "deltaW": [
          -1.45674e-152,
          -1.76293e-53,
          -1.76293e-53,
          -1.76293e-53,
          -1.76293e-53,
          -3.52585e-53,
          -3.52585e-53,
          -3.52585e-53,
          -3.52585e-53,
          -3.52585e-53
        ],
        "weights": [
          19.3194,
          63.888,
          61.8183,
          5.56092,
          -0.772622,
          3.67004,
          -44.9417,
          -45.8447,
          -43.0457,
          -24.3344
        ]
      },
      {
        "bias": 1.63287e-21,
        "deltaW": [
          3.58695e-54,
          8.16437e-22,
          8.16437e-22,
          8.16437e-22,
          8.16437e-22,
          1.63287e-21,
          1.63287e-21,
          1.63287e-21,
          1.63287e-21,
          1.63287e-21
        ],
        "weights": [
          -7.21408,
          0.57788,
          -2.78045,
          -2.14556,
          -4.35736,
          -1.88793,
          0.586041,
          -53.026,
          44.9735,
          -0.697586
        ]
      },
      {
        "bias": -2.38355e-25,
        "deltaW": [
          0.0,
          -1.19177e-25,
          -1.19177e-25,
          -1.19177e-25,
          -1.19177e-25,
          -2.38355e-25,
          -2.38355e-25,
          -2.38355e-25,
          -2.38355e-25,
          -2.38355e-25
        ],
        "weights": [
          30.3297,
          -39.6491,
          59.0727,
          5.67846,
          11.5645,
          9.33084,
          23.4975,
          -11.8957,
          -31.0412,
          16.19
        ]
      },
      {
        "bias": -1.51618e-31,
        "deltaW": [
          -5.19292e-81,
          -7.58089e-32,
          -7.58089e-32,
          -7.58089e-32,
          -7.58089e-32,
          -1.51618e-31,
          -1.51618e-31,
          -1.51618e-31,
          -1.51618e-31,
          -1.51618e-31
        ],
        "weights": [
          -0.332378,
          1.33564,
          0.610612,
          -1.32565,
          1.10355,
          1.23941,
          -57.9383,
          -59.668,
          87.5459,
          -9.55316
        ]
      },
      {
        "bias": 0.0,
        "deltaW": [
          0.0,
          0.0,
          0.0,
          0.0,
          0.0,
          0.0,
          0.0,
          0.0,
          0.0,
          0.0
        ],
        "weights": [
          -40.11,
          2.63449,
          -12.8411,
          -4.24235,
          11.1496,
          -4.50447,
          70.3737,
          0.391955,
          24.7794,
          0.0230111
        ]
      },
      {
        "bias": -1.47424e-29,
        "deltaW": [
          -1.11154e-79,
          -7.37118e-30,
          -7.37118e-30,
          -7.37118e-30,
          -7.37118e-30,
          -1.47424e-29,
          -1.47424e-29,
          -1.47424e-29,
          -1.47424e-29,
          -1.47424e-29
        ],
        "weights": [
          0.626454,
          -2.59743,
          -0.683741,
          -48.5198,
          45.5549,
          45.9192,
          -1.14293,
          -1.87718,
          -2.12853,
          -3.63618
        ]
      },
      {
        "bias": 0.0,
        "deltaW": [
          0.0,
          0.0,
          0.0,
          0.0,
          0.0,
          0.0,
          0.0,
          0.0,
          0.0,
          0.0
        ],
        "weights": [
          13.9871,
          11.6146,
          22.2535,
          -0.74046,
          6.40847,
          45.9288,
          1.225,
          1.06353,
          -3.88928,
          15.4001
        ]
      },
      {
        "bias": -9.86253e-19,
        "deltaW": [
          3.18688e-44,
          -4.93127e-19,
          -4.93127e-19,
          -4.93127e-19,
          -4.93127e-19,
          -9.86253e-19,
          -9.86253e-19,
          -9.86253e-19,
          -9.86253e-19,
          -9.86253e-19
        ],
        "weights": [
          -1.25899,
          0.800844,
          67.6531,
          0.387208,
          1.88531,
          31.1773,
          0.334154,
          -1.02244,
          -62.369,
          7.00072
        ]
      },
      {
        "bias": 4.63772e-21,
        "deltaW": [
          0.0,
          2.31886e-21,
          2.31886e-21,
          2.31886e-21,
          2.31886e-21,
          4.63772e-21,
          4.63772e-21,
          4.63772e-21,
          4.63772e-21,
          4.63772e-21
        ],
        "weights": [
          51.387,
          -4.03559,
          -0.295047,
          -57.6622,
          -6.41397,
          0.429716,
          50.3858,
          -0.842331,
          -3.1622,
          2.7923
        ]
      },
      {
        "bias": 7.66625e-38,
        "deltaW": [
          -2.27461e-91,
          3.83313e-38,
          3.83313e-38,
          3.83313e-38,
          3.83313e-38,
          7.66625e-38,
          7.66625e-38,
          7.66625e-38,
          7.66625e-38,
          7.66625e-38
        ],
        "weights": [
          53.5848,
          4.82234,
          1.14709,
          -45.5579,
          3.13126,
          3.02282,
          -44.0785,
          5.53857,
          4.40563,
          -3.33013
        ]
      },
      {
        "bias": 0.0,
        "deltaW": [
          0.0,
          0.0,
          0.0,
          0.0,
          0.0,
          0.0,
          0.0,
          0.0,
          0.0,
          0.0
        ],
        "weights": [
          -21.4976,
          38.6114,
          41.5489,
          -16.7838,
          36.2518,
          -17.2461,
          -0.0825212,
          0.720045,
          -1.14948,
          22.6621
        ]
      },
      {
        "bias": 9.37183e-26,
        "deltaW": [
          3.45518e-76,
          4.6859199999999997e-26,
          4.6859199999999997e-26,
          4.6859199999999997e-26,
          4.6859199999999997e-26,
          9.37183e-26,
          9.37183e-26,
          9.37183e-26,
          9.37183e-26,
          9.37183e-26
        ],
        "weights": [
          -0.0877102,
          41.7998,
          1.27623,
          2.79895,
          -35.0751,
          -0.536509,
          0.42616,
          -36.4682,
          1.81239,
          3.79278
        ]
      },
      {
        "bias": -6.79348e-21,
        "deltaW": [
          2.43383e-50,
          -3.39674e-21,
          -3.39674e-21,
          -3.39674e-21,
          -3.39674e-21,
          -6.79348e-21,
          -6.79348e-21,
          -6.79348e-21,
          -6.79348e-21,
          -6.79348e-21
        ],
        "weights": [
          1.11848,
          4.65057,
          41.9302,
          -1.09802,
          40.93,
          -0.144671,
          -46.7749,
          0.608591,
          -1.07902,
          -10.427
        ]
      },
      {
        "bias": 0.0,
        "deltaW": [
          0.0,
          0.0,
          0.0,
          0.0,
          0.0,
          0.0,
          0.0,
          0.0,
          0.0,
          0.0
        ],
        "weights": [
          9.47534,
          -4.15199,
          47.3562,
          0.692397,
          -26.453,
          1.535,
          40.3627,
          23.2988,
          -1.49941,
          -2.32519
        ]
      },
      {
        "bias": 1.04971e-25,
        "deltaW": [
          -7.6683e-65,
          5.24853e-26,
          5.24853e-26,
          5.24853e-26,
          5.24853e-26,
          1.04971e-25,
          1.04971e-25,
          1.04971e-25,
          1.04971e-25,
          1.04971e-25
        ],
        "weights": [
          -2.83523,
          -0.452304,
          34.3153,
          -2.2901,
          60.2254,
          -21.3619,
          -0.953061,
          2.43326,
          -0.947098,
          -0.0994266
        ]
      },
      {
        "bias": 2.05206e-21,
        "deltaW": [
          1.42565e-50,
          1.02603e-21,
          1.02603e-21,
          1.02603e-21,
          1.02603e-21,
          2.05206e-21,
          2.05206e-21,
          2.05206e-21,
          2.05206e-21,
          2.05206e-21
        ],
        "weights": [
          11.791,
          4.40487,
          7.08207,
          7.0467,
          -10.7454,
          3.92807,
          76.7466,
          -36.3059,
          -59.9401,
          -3.81736
        ]
      },
      {
        "bias": -5.5471e-32,
        "deltaW": [
          1.68551e-75,
          -2.77355e-32,
          -2.77355e-32,
          -2.77355e-32,
          -2.77355e-32,
          -5.5471e-32,
          -5.5471e-32,
          -5.5471e-32,
          -5.5471e-32,
          -5.5471e-32
        ],
        "weights": [
          43.2647,
          -1.16674,
          -5.10159,
          47.9272,
          -4.36055,
          -3.43174,
          -51.9364,
          -0.826754,
          -5.70718,
          3.48373
        ]
      },
      {
        "bias": 7.39911e-32,
        "deltaW": [
          4.60394e-86,
          3.69956e-32,
          3.69956e-32,
          3.69956e-32,
          3.69956e-32,
          7.39911e-32,
          7.39911e-32,
          7.39911e-32,
          7.39911e-32,
          7.39911e-32
        ],
        "weights": [
          4.53225,
          6.23575,
          -57.658,
          1.63216,
          54.8363,
          1.81099,
          -56.9205,
          4.74875,
          1.95559,
          6.41031
        ]
      },
      {
        "bias": 0.0,
        "deltaW": [
          0.0,
          0.0,
          0.0,
          0.0,
          0.0,
          0.0,
          0.0,
          0.0,
          0.0,
          0.0
        ],
        "weights": [
          3.90124,
          48.7478,
          -4.98003,
          0.271564,
          4.86249,
          -4.02154,
          -6.96885,
          32.2025,
          -2.72412,
          -5.64059
        ]
      }
    ],
    [
      {
        "bias": 0.0,
        "deltaW": [
          0.0,
          0.0,
          0.0,
          0.0,
          0.0,
          0.0,
          0.0,
          0.0,
          0.0,
          0.0,
          0.0,
          0.0,
          0.0,
          0.0,
          0.0,
          0.0,
          0.0,
          0.0,
          0.0,
          0.0,
          0.0,
          0.0,
          0.0,
          0.0,
          0.0,
          0.0,
          0.0,
          0.0,
          0.0,
          0.0,
          0.0,
          0.0,
          0.0,
          0.0,
          0.0,
          0.0,
          0.0,
          0.0,
          0.0,
          0.0,
          0.0,
          0.0,
          0.0,
          0.0,
          0.0,
          0.0,
          0.0,
          0.0,
          0.0,
          0.0
        ],
        "weights": [
          -48.1059,
          8.57892,
          0.186452,
          24.7495,
          26.5848,
          20.0055,
          -24.6161,
          -39.6111,
          -14.6184,
          -3.60215,
          1.8004,
          -3.29703,
          -2.53317,
          -6.64403,
          1.35209,
          -7.56164,
          19.6375,
          3.88602,
          -8.33492,
          -3.1212,
          18.5219,
          -8.55362,
          -9.99041,
          8.84719,
          44.5089,
          -18.5824,
          15.1464,
          -2.70128,
          -14.3941,
          -6.9619,
          -3.13806,
          -3.29943,
          -4.07102,
          0.626005,
          -17.1012,
          1.08321,
          -6.38676,
          16.1967,
          41.7569,
          -24.6168,
          18.7897,
          -2.63247,
          19.7334,
          -2.41152,
          -3.63421,
          -19.1655,
          -9.08138,
          -3.63004,
          -7.7045,
          -16.4673
        ]
      },
      {
        "bias": 0.0,
        "deltaW": [
          0.0,
          0.0,
          0.0,
          0.0,
          0.0,
          0.0,
          0.0,
          0.0,
          0.0,
          0.0,
          0.0,
          0.0,
          0.0,
          0.0,
          0.0,
          0.0,
          0.0,
          0.0,
          0.0,
          0.0,
          0.0,
          0.0,
          0.0,
          0.0,
          0.0,
          0.0,
          0.0,
          0.0,
          0.0,
          0.0,
          0.0,
          0.0,
          0.0,
          0.0,
          0.0,
          0.0,
          0.0,
          0.0,
          0.0,
          0.0,
          0.0,
          0.0,
          0.0,
          0.0,
          0.0,
          0.0,
          0.0,
          0.0,
          0.0,
          0.0
        ],
        "weights": [
          0.895169,
          -4.75915,
          1.79557,
          3.96427,
          1.74752,
          -0.478443,
          1.59877,
          -0.963336,
          33.903,
          1.16387,
          0.0822957,
          -7.02208,
          14.395,
          -14.7461,
          28.4036,
          8.49495,
          -18.6553,
          -37.2888,
          10.1542,
          12.6758,
          -12.3898,
          2.65295,
          5.11237,
          -23.0616,
          10.7616,
          30.924,
          -3.24191,
          -19.6587,
          22.401,
          7.51813,
          8.02705,
          -1.49095,
          -12.9768,
          -1.41229,
          26.5013,
          -5.59484,
          29.4307,
          -3.29817,
          -8.17549,
          5.10749,
          7.22996,
          33.6263,
          -31.1178,
          4.13665,
          12.1137,
          10.5774,
          24.1371,
          -2.76331,
          1.3453,
          -5.437
        ]
      },
      {
        "bias": -1.64144e-72,
        "deltaW": [
          -1.24676e-73,
          -3.50973e-79,
          -1.64144e-72,
          -1.64144e-72,
          -1.64144e-72,
          -1.64144e-72,
          -1.64144e-72,
          -1.42432e-76,
          -7.0472e-81,
          -1.64144e-72,
          -4.10472e-73,
          -1.64144e-72,
          -1.64144e-72,
          -1.64144e-72,
          -4.11226e-78,
          -1.64144e-72,
          -6.97544e-83,
          -1.64144e-72,
          -1.64144e-72,
          -6.18981e-91,
          -1.64144e-72,
          -1.64143e-72,
          -1.64144e-72,
          -1.64144e-72,
          -1.64144e-72,
          -2.31838e-87,
          -1.64144e-72,
          -1.64144e-72,
          -1.64144e-72,
          -1.64144e-72,
          -1.60458e-101,
          -2.84961e-111,
          -9.10574e-79,
          -1.64144e-72,
          -8.3938e-89,
          -1.64144e-72,
          -1.64144e-72,
          -1.64144e-72,
          -1.64139e-72,
          -1.64144e-72,
          -2.19205e-95,
          -1.64144e-72,
          -1.28477e-83,
          -7.41119e-79,
          -1.64144e-72,
          -1.64144e-72,
          -3.06245e-79,
          -8.78383e-90,
          -1.18271e-89,
          -1.64144e-72
        ],
        "weights": [
          -7.29283,
          3.24018,
          -13.3449,
          -72.7144,
          -72.6651,
          -2.77051,
          48.0294,
          -1.15814,
          6.59598,
          21.6239,
          -8.3733,
          -11.5682,
          7.1417,
          2.53124,
          -3.96723,
          -24.7563,
          0.162297,
          0.877537,
          -1.91329,
          -5.09465,
          -8.2673,
          1.19035,
          -1.20356,
          -10.4084,
          -1.76072,
          16.3541,
          -7.3976,
          -2.01124,
          13.8539,
          2.13293,
          -5.70148,
          5.35313,
          33.635,
          -5.75604,
          61.6255,
          3.8342,
          9.98361,
          -36.9695,
          5.19565,
          20.3506,
          -8.52712,
          -2.75468,
          7.97057,
          1.28439,
          -8.23266,
          3.75293,
          59.5289,
          5.09878,
          -16.5985,
          6.21462
        ]
      },
      {
        "bias": 1.26766e-30,
        "deltaW": [
          9.62859e-32,
          2.71052e-37,
          1.26766e-30,
          1.26766e-30,
          1.26766e-30,
          1.26766e-30,
          1.26766e-30,
          1.09998e-34,
          5.44247e-39,
          1.26766e-30,
          3.17002e-31,
          1.26766e-30,
          1.26766e-30,
          1.26766e-30,
          3.17585e-36,
          1.26766e-30,
          5.38705e-41,
          1.26766e-30,
          1.26766e-30,
          4.78032e-49,
          1.26766e-30,
          1.26766e-30,
          1.26766e-30,
          1.26766e-30,
          1.26766e-30,
          1.79045e-45,
          1.26766e-30,
          1.26766e-30,
          1.26766e-30,
          1.26766e-30,
          1.2392e-59,
          2.20072e-69,
          7.03225e-37,
          1.26766e-30,
          6.48243e-47,
          1.26766e-30,
          1.26766e-30,
          1.26766e-30,
          1.26763e-30,
          1.26766e-30,
          1.69289e-53,
          1.26766e-30,
          9.92212e-42,
          5.72357e-37,
          1.26766e-30,
          1.26766e-30,
          2.36509e-37,
          6.78365e-48,
          9.13393e-48,
          1.26766e-30
        ],
        "weights": [
          -5.3456,
          27.7174,
          -2.11184,
          5.80993,
          6.42761,
          -18.2839,
          8.85468,
          11.1668,
          -14.9718,
          2.56473,
          12.1851,
          -10.4441,
          -5.94386,
          2.56836,
          -5.96397,
          6.53228,
          3.9858,
          1.69574,
          1.60065,
          -12.4582,
          25.1116,
          2.30685,
          -16.7933,
          0.494568,
          -16.3591,
          -2.51071,
          -1.33188,
          -5.32973,
          -27.9488,
          -3.85723,
          -9.36965,
          22.9518,
          -18.107,
          0.84223,
          11.1883,
          -15.2597,
          -7.63448,
          5.49018,
          13.3062,
          -0.23023,
          -1.2066,
          6.5058,
          28.5586,
          0.372063,
          14.1453,
          2.74733,
          11.0843,
          -10.8931,
          9.88218,
          -19.3626
        ]
      },
      {
        "bias": -6.47456e-16,
        "deltaW": [
          -4.9178e-17,
          -1.3844e-22,
          -6.47456e-16,
          -6.47456e-16,
          -6.47456e-16,
          -6.47456e-16,
          -6.47456e-16,
          -5.61816e-20,
          -2.77974e-24,
          -6.47456e-16,
          -1.61909e-16,
          -6.47456e-16,
          -6.47456e-16,
          -6.47456e-16,
          -1.62206e-21,
          -6.47456e-16,
          -2.75143e-26,
          -6.47456e-16,
          -6.47456e-16,
          -2.44154e-34,
          -6.47456e-16,
          -6.47456e-16,
          -6.47456e-16,
          -6.47456e-16,
          -6.47456e-16,
          -9.14472e-31,
          -6.47456e-16,
          -6.47456e-16,
          -6.47456e-16,
          -6.47456e-16,
          -6.3292e-45,
          -1.12402e-54,
          -3.59172e-22,
          -6.47456e-16,
          -3.31089e-32,
          -6.47456e-16,
          -6.47456e-16,
          -6.47456e-16,
          -6.47438e-16,
          -6.47456e-16,
          -8.64643e-39,
          -6.47456e-16,
          -5.06771e-27,
          -2.92331e-22,
          -6.47456e-16,
          -6.47456e-16,
          -1.20797e-22,
          -3.46474e-33,
          -4.66515e-33,
          -6.47456e-16
        ],
        "weights": [
          -2.67639,
          -16.0246,
          2.05325,
          4.06879,
          3.25619,
          -20.0061,
          4.47433,
          22.3558,
          4.84454,
          55.1486,
          13.9552,
          -33.095,
          -10.1341,
          3.65522,
          -14.9764,
          -15.4833,
          0.714531,
          2.2198,
          -10.2372,
          -27.7634,
          13.7698,
          6.79545,
          -4.3761,
          -3.66174,
          -18.2059,
          6.71897,
          4.93318,
          16.7309,
          -0.100805,
          -10.8979,
          2.54383,
          31.3719,
          -4.54111,
          14.7613,
          4.57483,
          -6.79451,
          12.8161,
          -13.3178,
          54.4492,
          -34.9245,
          -8.84621,
          -2.25531,
          -18.4965,
          23.2351,
          9.43843,
          -11.3396,
          -16.9916,
          16.0022,
          -15.8634,
          -8.92323
        ]
      },
      {
        "bias": 0.0,
        "deltaW": [
          0.0,
          0.0,
          0.0,
          0.0,
          0.0,
          0.0,
          0.0,
          0.0,
          0.0,
          0.0,
          0.0,
          0.0,
          0.0,
          0.0,
          0.0,
          0.0,
          0.0,
          0.0,
          0.0,
          0.0,
          0.0,
          0.0,
          0.0,
          0.0,
          0.0,
          0.0,
          0.0,
          0.0,
          0.0,
          0.0,
          0.0,
          0.0,
          0.0,
          0.0,
          0.0,
          0.0,
          0.0,
          0.0,
          0.0,
          0.0,
          0.0,
          0.0,
          0.0,
          0.0,
          0.0,
          0.0,
          0.0,
          0.0,
          0.0,
          0.0
        ],
        "weights": [
          -6.2809,
          -9.51435,
          0.793255,
          4.6795,
          4.99342,
          0.726223,
          -51.8464,
          7.79325,
          -3.79405,
          -9.28598,
          -30.3428,
          13.2602,
          6.87125,
          -4.53978,
          16.439,
          -20.7762,
          2.60474,
          -7.26357,
          7.45808,
          -0.687887,
          15.9531,
          -2.50833,
          8.11854,
          9.66187,
          2.3757,
          12.8876,
          7.97966,
          -5.24785,
          0.688099,
          2.74623,
          -5.01423,
          0.321117,
          9.69781,
          31.3091,
          -21.6397,
          31.6782,
          4.4492,
          5.7749,
          -0.470298,
          -7.17148,
          2.31771,
          -2.96485,
          14.6874,
          7.56312,
          9.66388,
          3.81783,
          -10.9851,
          13.9882,
          45.2008,
          -5.32314
        ]
      },
      {
        "bias": 0.0,
        "deltaW": [
          0.0,
          0.0,
          0.0,
          0.0,
          0.0,
          0.0,
          0.0,
          0.0,
          0.0,
          0.0,
          0.0,
          0.0,
          0.0,
          0.0,
          0.0,
          0.0,
          0.0,
          0.0,
          0.0,
          0.0,
          0.0,
          0.0,
          0.0,
          0.0,
          0.0,
          0.0,
          0.0,
          0.0,
          0.0,
          0.0,
          0.0,
          0.0,
          0.0,
          0.0,
          0.0,
          0.0,
          0.0,
          0.0,
          0.0,
          0.0,
          0.0,
          0.0,
          0.0,
          0.0,
          0.0,
          0.0,
          0.0,
          0.0,
          0.0,
          0.0
        ],
        "weights": [
          13.9119,
          -4.54323,
          -4.98583,
          -12.8111,
          -15.0061,
          -17.3469,
          29.3841,
          -15.8743,
          34.4963,
          15.6357,
          -14.8297,
          1.53249,
          16.5595,
          -12.0196,
          11.4456,
          8.10667,
          -19.2582,
          -5.15885,
          17.6778,
          9.38814,
          -10.812,
          6.85959,
          -10.3875,
          14.644,
          -23.9297,
          14.6727,
          29.7221,
          -3.7943,
          10.5488,
          2.09587,
          -2.94779,
          -3.49001,
          -8.11782,
          1.80989,
          25.3236,
          2.45283,
          23.5366,
          1.53446,
          -18.7725,
          -35.9357,
          45.112,
          3.7142,
          -21.629,
          14.7703,
          5.38845,
          20.9566,
          -2.73607,
          -5.11306,
          0.393272,
          -1.78219
        ]
      },
      {
        "bias": -2.28026e-19,
        "deltaW": [
          -1.73199e-20,
          -4.87567e-26,
          -2.28026e-19,
          -2.28026e-19,
          -2.28026e-19,
          -2.28026e-19,
          -2.28026e-19,
          -1.97865e-23,
          -9.78988e-28,
          -2.28026e-19,
          -5.70222e-20,
          -2.28026e-19,
          -2.28026e-19,
          -2.28026e-19,
          -5.7127e-25,
          -2.28026e-19,
          -9.69019e-30,
          -2.28026e-19,
          -2.28026e-19,
          -8.59881e-38,
          -2.28026e-19,
          -2.28026e-19,
          -2.28026e-19,
          -2.28026e-19,
          -2.28026e-19,
          -3.22066e-34,
          -2.28026e-19,
          -2.28026e-19,
          -2.28026e-19,
          -2.28026e-19,
          -2.22906e-48,
          -3.95864e-58,
          -1.26496e-25,
          -2.28026e-19,
          -1.16606e-35,
          -2.28026e-19,
          -2.28026e-19,
          -2.28026e-19,
          -2.2802e-19,
          -2.28026e-19,
          -3.04517e-42,
          -2.28026e-19,
          -1.78478e-30,
          -1.02955e-25,
          -2.28026e-19,
          -2.28026e-19,
          -4.25432e-26,
          -1.22024e-36,
          -1.64301e-36,
          -2.28026e-19
        ],
        "weights": [
          -1.23235,
          -4.84432,
          1.64593,
          3.75919,
          4.29812,
          55.7755,
          -12.3771,
          8.27111,
          75.4385,
          5.62009,
          -1.72654,
          -5.27596,
          -3.58054,
          9.78118,
          0.181175,
          -2.962,
          -1.05422,
          -4.22913,
          12.6854,
          5.00356,
          -11.3735,
          3.27269,
          3.17141,
          1.06832,
          -6.172,
          -8.21975,
          -46.7792,
          -7.57176,
          6.86086,
          17.1999,
          -5.32567,
          -10.3464,
          -14.7988,
          1.76338,
          13.086,
          -0.28849,
          5.90085,
          2.53024,
          -10.2508,
          -15.8483,
          -57.0395,
          8.27061,
          9.07709,
          11.709,
          10.0996,
          -0.374437,
          11.3728,
          23.1904,
          10.2401,
          -8.26439
        ]
      },
      {
        "bias": 2.44949e-24,
        "deltaW": [
          1.86052e-25,
          5.23751e-31,
          2.44949e-24,
          2.44949e-24,
          2.44949e-24,
          2.44949e-24,
          2.44949e-24,
          2.12549e-28,
          1.05164e-32,
          2.44949e-24,
          6.1254e-25,
          2.44949e-24,
          2.44949e-24,
          2.44949e-24,
          6.13666e-30,
          2.44949e-24,
          1.04093e-34,
          2.44949e-24,
          2.44949e-24,
          9.23695e-43,
          2.44949e-24,
          2.44948e-24,
          2.44949e-24,
          2.44949e-24,
          2.44949e-24,
          3.45967e-39,
          2.44949e-24,
          2.44949e-24,
          2.44949e-24,
          2.44949e-24,
          2.39449e-53,
          4.25242e-63,
          1.35883e-30,
          2.44949e-24,
          1.25259e-40,
          2.44949e-24,
          2.44949e-24,
          2.44949e-24,
          2.44942e-24,
          2.44948e-24,
          3.27116e-47,
          2.44949e-24,
          1.91724e-35,
          1.10596e-30,
          2.44949e-24,
          2.44949e-24,
          4.57004e-31,
          1.3108e-41,
          1.76494e-41,
          2.44949e-24
        ],
        "weights": [
          4.42885,
          -3.57276,
          -3.28433,
          19.4349,
          20.1514,
          53.1305,
          -14.145,
          -16.1805,
          55.7591,
          -0.895801,
          10.6852,
          -1.39787,
          -0.154437,
          8.48175,
          4.88281,
          -0.50818,
          19.3039,
          -5.4016,
          4.05282,
          8.36549,
          8.10185,
          2.17894,
          3.59824,
          20.2859,
          -19.6196,
          -0.24145,
          -18.7283,
          -0.135499,
          16.0709,
          -0.427895,
          17.5941,
          0.255578,
          -3.46027,
          -5.11894,
          9.27747,
          -17.6098,
          -11.4672,
          10.743,
          -9.5033,
          -14.8391,
          -38.2831,
          0.639458,
          7.54817,
          -13.508,
          -0.0231804,
          -8.47708,
          -7.26024,
          15.8828,
          3.94747,
          -11.8058
        ]
      },
      {
        "bias": 5.62385e-21,
        "deltaW": [
          4.27163e-22,
          1.2025e-27,
          5.62385e-21,
          5.62385e-21,
          5.62385e-21,
          5.62385e-21,
          5.62385e-21,
          4.87998e-25,
          2.4145e-29,
          5.62385e-21,
          1.40635e-21,
          5.62385e-21,
          5.62385e-21,
          5.62385e-21,
          1.40894e-26,
          5.62385e-21,
          2.38991e-31,
          5.62385e-21,
          5.62385e-21,
          2.12074e-39,
          5.62385e-21,
          5.62385e-21,
          5.62385e-21,
          5.62385e-21,
          5.62385e-21,
          7.94317e-36,
          5.62385e-21,
          5.62385e-21,
          5.62385e-21,
          5.62385e-21,
          5.49759e-50,
          9.76328e-60,
          3.11979e-27,
          5.62385e-21,
          2.87587e-37,
          5.62385e-21,
          5.62385e-21,
          5.62385e-21,
          5.6237e-21,
          5.62385e-21,
          7.51035e-44,
          5.62385e-21,
          4.40185e-32,
          2.53921e-27,
          5.62385e-21,
          5.62385e-21,
          1.04925e-27,
          3.0095e-38,
          4.05218e-38,
          5.62385e-21
        ],
        "weights": [
          -5.67326,
          34.6576,
          -3.81084,
          -5.31927,
          -6.04102,
          0.701925,
          5.42052,
          37.5428,
          -0.0959143,
          -3.68704,
          -9.87736,
          14.0816,
          -16.6023,
          -1.48294,
          9.33235,
          -14.4323,
          4.36015,
          -3.76869,
          -3.43948,
          12.2231,
          18.6887,
          -14.161,
          3.61324,
          -7.71543,
          11.201,
          -11.9544,
          -0.167823,
          5.26323,
          7.01381,
          11.3763,
          2.47604,
          -18.5442,
          -1.12145,
          -17.3883,
          -1.35353,
          1.76683,
          5.94784,
          -5.03876,
          -14.4192,
          28.6095,
          9.50407,
          -17.47,
          -15.536,
          11.2895,
          13.6442,
          -14.801,
          -8.95845,
          15.1935,
          58.388,
          4.75559
        ]
      },
      {
        "bias": 0.0,
        "deltaW": [
          0.0,
          0.0,
          0.0,
          0.0,
          0.0,
          0.0,
          0.0,
          0.0,
          0.0,
          0.0,
          0.0,
          0.0,
          0.0,
          0.0,
          0.0,
          0.0,
          0.0,
          0.0,
          0.0,
          0.0,
          0.0,
          0.0,
          0.0,
          0.0,
          0.0,
          0.0,
          0.0,
          0.0,
          0.0,
          0.0,
          0.0,
          0.0,
          0.0,
          0.0,
          0.0,
          0.0,
          0.0,
          0.0,
          0.0,
          0.0,
          0.0,
          0.0,
          0.0,
          0.0,
          0.0,
          0.0,
          0.0,
          0.0,
          0.0,
          0.0
        ],
        "weights": [
          3.10295,
          -51.3708,
          -2.6859,
          14.4452,
          15.5783,
          0.398076,
          -4.31277,
          -8.865,
          -9.66523,
          11.2251,
          28.2718,
          1.07969,
          -4.42592,
          7.76558,
          -8.11903,
          12.9018,
          -7.36858,
          -5.14051,
          0.388852,
          -44.2622,
          6.06196,
          3.0535,
          2.39938,
          2.32106,
          -12.2175,
          2.62241,
          15.1801,
          14.4277,
          -10.577,
          -5.65968,
          -4.33108,
          14.725,
          5.3127,
          -3.87329,
          3.51507,
          16.0327,
          -14.0543,
          8.57159,
          -6.68787,
          -15.9796,
          8.53196,
          3.79713,
          25.6855,
          13.7572,
          4.461,
          15.5204,
          -4.73248,
          6.00235,
          1.45278,
          -3.52462
        ]
      },
      {
        "bias": -2.05273e-33,
        "deltaW": [
          -1.55916e-34,
          -4.38916e-40,
          -2.05273e-33,
          -2.05273e-33,
          -2.05273e-33,
          -2.05273e-33,
          -2.05273e-33,
          -1.78121e-37,
          -8.81302e-42,
          -2.05273e-33,
          -5.13324e-34,
          -2.05273e-33,
          -2.05273e-33,
          -2.05273e-33,
          -5.14267e-39,
          -2.05273e-33,
          -8.72328e-44,
          -2.05273e-33,
          -2.05273e-33,
          -7.74079e-52,
          -2.05273e-33,
          -2.05273e-33,
          -2.05273e-33,
          -2.05273e-33,
          -2.05273e-33,
          -2.89929e-48,
          -2.05273e-33,
          -2.05273e-33,
          -2.05273e-33,
          -2.05273e-33,
          -2.00664e-62,
          -3.56364e-72,
          -1.13874e-39,
          -2.05273e-33,
          -1.0497e-49,
          -2.05273e-33,
          -2.05273e-33,
          -2.05273e-33,
          -2.05267e-33,
          -2.05273e-33,
          -2.74131e-56,
          -2.05273e-33,
          -1.60669e-44,
          -9.26821e-40,
          -2.05273e-33,
          -2.05273e-33,
          -3.82981e-40,
          -1.09848e-50,
          -1.47906e-50,
          -2.05273e-33
        ],
        "weights": [
          15.195,
          3.19576,
          6.85261,
          -6.1635,
          -8.17267,
          6.16925,
          15.2973,
          6.0092,
          -0.0458519,
          -9.63086,
          -2.34343,
          1.40182,
          16.6246,
          2.33009,
          5.66627,
          -1.96387,
          -1.40297,
          2.11458,
          4.75579,
          34.7328,
          -30.8395,
          -15.126,
          10.7812,
          -17.8494,
          4.3396,
          -22.0208,
          -26.9542,
          -5.61802,
          -8.79761,
          45.7463,
          12.9865,
          -11.8648,
          21.6436,
          -4.25357,
          -26.6538,
          -4.20052,
          19.0418,
          -12.0355,
          -17.4023,
          11.9107,
          -13.5873,
          -3.03941,
          4.01905,
          -19.7901,
          -21.6251,
          11.8979,
          0.183074,
          18.5126,
          13.7628,
          -16.3223
        ]
      },
      {
        "bias": -6.52871e-45,
        "deltaW": [
          -4.95892e-46,
          -1.39597e-51,
          -6.52871e-45,
          -6.52871e-45,
          -6.52871e-45,
          -6.52871e-45,
          -6.52871e-45,
          -5.66514e-49,
          -2.80298e-53,
          -6.52871e-45,
          -1.63263e-45,
          -6.52871e-45,
          -6.52871e-45,
          -6.52871e-45,
          -1.63563e-50,
          -6.52871e-45,
          -2.77444e-55,
          -6.52871e-45,
          -6.52871e-45,
          -2.46196e-63,
          -6.52871e-45,
          -6.52871e-45,
          -6.52871e-45,
          -6.52871e-45,
          -6.52871e-45,
          -9.2212e-60,
          -6.52871e-45,
          -6.52871e-45,
          -6.52871e-45,
          -6.52871e-45,
          -6.38213e-74,
          -1.13342e-83,
          -3.62175e-51,
          -6.52871e-45,
          -3.33858e-61,
          -6.52871e-45,
          -6.52871e-45,
          -6.52871e-45,
          -6.52853e-45,
          -6.52871e-45,
          -8.71874e-68,
          -6.52871e-45,
          -5.11009e-56,
          -2.94776e-51,
          -6.52871e-45,
          -6.52871e-45,
          -1.21807e-51,
          -3.49372e-62,
          -4.70416e-62,
          -6.52871e-45
        ],
        "weights": [
          11.3686,
          57.0327,
          -0.305313,
          0.692863,
          4.14188,
          -14.3831,
          -5.21645,
          22.9814,
          -6.64187,
          -2.53698,
          -3.02397,
          -1.63728,
          -61.0036,
          2.77579,
          -17.2722,
          -9.39807,
          4.69005,
          0.851415,
          5.64508,
          44.702,
          24.7635,
          3.71204,
          0.3398,
          2.62016,
          -3.57725,
          6.15534,
          -47.1057,
          0.504713,
          -10.6372,
          -9.07144,
          -3.4599,
          6.84018,
          -13.5844,
          4.12783,
          29.5541,
          -13.1793,
          -6.51746,
          -2.24587,
          -6.9694,
          56.6677,
          26.1538,
          -3.79673,
          9.36669,
          -9.92761,
          8.62415,
          0.956676,
          21.7664,
          20.5085,
          23.8853,
          4.5528
        ]
      },
      {
        "bias": 9.19554e-42,
        "deltaW": [
          6.98453e-43,
          1.9662e-48,
          9.19554e-42,
          9.19554e-42,
          9.19554e-42,
          9.19554e-42,
          9.19554e-42,
          7.97923e-46,
          3.94794e-50,
          9.19554e-42,
          2.29952e-42,
          9.19554e-42,
          9.19554e-42,
          9.19554e-42,
          2.30375e-47,
          9.19554e-42,
          3.90774e-52,
          9.19554e-42,
          9.19554e-42,
          3.46762e-60,
          9.19554e-42,
          9.19554e-42,
          9.19554e-42,
          9.19554e-42,
          9.19554e-42,
          1.29879e-56,
          9.19554e-42,
          9.19554e-42,
          9.19554e-42,
          9.19554e-42,
          8.98909e-71,
          1.59639e-80,
          5.10116e-48,
          9.19554e-42,
          4.70232e-58,
          9.19554e-42,
          9.19554e-42,
          9.19554e-42,
          9.19529e-42,
          9.19554e-42,
          1.22802e-64,
          9.19554e-42,
          7.19745e-53,
          4.15185e-48,
          9.19554e-42,
          9.19554e-42,
          1.71563e-48,
          4.92082e-59,
          6.62571e-59,
          9.19554e-42
        ],
        "weights": [
          -9.07988,
          39.1934,
          8.43796,
          -4.77691,
          -5.542,
          -1.19048,
          4.85579,
          25.8165,
          -1.47269,
          -9.71453,
          0.727768,
          0.35708,
          2.37106,
          4.25557,
          -0.209154,
          0.840852,
          -5.19852,
          -0.358364,
          0.0370507,
          41.9612,
          -17.5148,
          2.11891,
          6.41556,
          1.55907,
          -16.9432,
          4.12911,
          -7.47806,
          -22.9997,
          -12.3412,
          -0.732796,
          -10.6451,
          -11.4539,
          5.77585,
          -7.57283,
          -5.87541,
          -2.76015,
          -0.636043,
          -3.49276,
          0.86866,
          19.3464,
          -0.972674,
          -1.1805,
          2.86147,
          2.5503,
          -1.89397,
          -10.6512,
          4.59332,
          9.01046,
          4.62297,
          12.0484
        ]
      },
      {
        "bias": 0.0,
        "deltaW": [
          0.0,
          0.0,
          0.0,
          0.0,
          0.0,
          0.0,
          0.0,
          0.0,
          0.0,
          0.0,
          0.0,
          0.0,
          0.0,
          0.0,
          0.0,
          0.0,
          0.0,
          0.0,
          0.0,
          0.0,
          0.0,
          0.0,
          0.0,
          0.0,
          0.0,
          0.0,
          0.0,
          0.0,
          0.0,
          0.0,
          0.0,
          0.0,
          0.0,
          0.0,
          0.0,
          0.0,
          0.0,
          0.0,
          0.0,
          0.0,
          0.0,
          0.0,
          0.0,
          0.0,
          0.0,
          0.0,
          0.0,
          0.0,
          0.0,
          0.0
        ],
        "weights": [
          -7.70818,
          2.35677,
          12.1148,
          6.95952,
          5.25454,
          30.6919,
          -5.71529,
          1.31349,
          57.0688,
          5.28471,
          7.40549,
          7.65035,
          -1.23624,
          12.1514,
          -10.8714,
          -14.9947,
          3.63805,
          -4.13022,
          3.57987,
          28.2579,
          3.22946,
          8.12957,
          -31.0632,
          8.33617,
          -6.9116,
          -15.166,
          -21.4641,
          11.2219,
          13.9857,
          -0.0408549,
          2.445,
          7.14565,
          -6.79969,
          -0.466012,
          16.6363,
          18.6559,
          -5.43544,
          -1.88279,
          0.219569,
          -13.2117,
          -33.002,
          -0.72303,
          0.842213,
          -23.001,
          2.4465,
          0.505151,
          -1.24301,
          10.9397,
          -4.41037,
          3.08108
        ]
      },
      {
        "bias": -1.46543e-23,
        "deltaW": [
          -1.11308e-24,
          -3.1334e-30,
          -1.46543e-23,
          -1.46543e-23,
          -1.46543e-23,
          -1.46543e-23,
          -1.46543e-23,
          -1.27159e-27,
          -6.29156e-32,
          -1.46543e-23,
          -3.66458e-24,
          -1.46543e-23,
          -1.46543e-23,
          -1.46543e-23,
          -3.67132e-29,
          -1.46543e-23,
          -6.22749e-34,
          -1.46543e-23,
          -1.46543e-23,
          -5.5261e-42,
          -1.46543e-23,
          -1.46543e-23,
          -1.46543e-23,
          -1.46543e-23,
          -1.46543e-23,
          -2.06978e-38,
          -1.46543e-23,
          -1.46543e-23,
          -1.46543e-23,
          -1.46543e-23,
          -1.43253e-52,
          -2.54406e-62,
          -8.12936e-30,
          -1.46543e-23,
          -7.49376e-40,
          -1.46543e-23,
          -1.46543e-23,
          -1.46543e-23,
          -1.46539e-23,
          -1.46543e-23,
          -1.957e-46,
          -1.46543e-23,
          -1.14701e-34,
          -6.61651e-30,
          -1.46543e-23,
          -1.46543e-23,
          -2.73408e-30,
          -7.84197e-41,
          -1.05589e-40,
          -1.46543e-23
        ],
        "weights": [
          29.2518,
          1.75485,
          -3.51036,
          -1.35212,
          -1.94085,
          5.50028,
          36.8124,
          -8.85165,
          0.767847,
          -11.895,
          4.74934,
          -8.96337,
          3.94057,
          -7.0355,
          45.091,
          41.4371,
          2.73661,
          6.78943,
          1.34892,
          10.2459,
          -9.81909,
          -0.443966,
          4.11063,
          -5.8227,
          -34.6005,
          -33.3462,
          5.03414,
          -5.61835,
          6.35314,
          10.1266,
          24.262,
          -1.67268,
          -7.35022,
          -11.6832,
          -11.0555,
          -0.263556,
          3.54183,
          0.372997,
          -31.513,
          11.0964,
          -7.11864,
          -4.96465,
          -13.9412,
          -4.0556,
          -10.3808,
          -0.675999,
          3.3998,
          -6.02842,
          8.2112,
          -15.8715
        ]
      },
      {
        "bias": 0.0,
        "deltaW": [
          0.0,
          0.0,
          0.0,
          0.0,
          0.0,
          0.0,
          0.0,
          0.0,
          0.0,
          0.0,
          0.0,
          0.0,
          0.0,
          0.0,
          0.0,
          0.0,
          0.0,
          0.0,
          0.0,
          0.0,
          0.0,
          0.0,
          0.0,
          0.0,
          0.0,
          0.0,
          0.0,
          0.0,
          0.0,
          0.0,
          0.0,
          0.0,
          0.0,
          0.0,
          0.0,
          0.0,
          0.0,
          0.0,
          0.0,
          0.0,
          0.0,
          0.0,
          0.0,
          0.0,
          0.0,
          0.0,
          0.0,
          0.0,
          0.0,
          0.0
        ],
        "weights": [
          -62.0778,
          3.20932,
          -0.898721,
          10.249,
          11.4442,
          5.98046,
          3.84649,
          17.826,
          -3.57915,
          0.303984,
          -15.8359,
          -8.63335,
          2.31625,
          -11.3349,
          4.37094,
          -7.05285,
          11.6658,
          -1.23615,
          6.1739,
          -10.5581,
          -14.1333,
          11.6079,
          -2.75811,
          9.04966,
          4.6712,
          9.95853,
          11.434,
          13.1588,
          -2.26915,
          4.19712,
          -16.9071,
          10.8055,
          -19.0888,
          10.1436,
          -7.16159,
          10.7183,
          -9.48988,
          -9.40674,
          57.1961,
          5.15134,
          -2.5592,
          -2.30342,
          3.76318,
          1.4127,
          -1.79033,
          2.07927,
          6.47053,
          13.4813,
          5.22995,
          8.69419
        ]
      },
      {
        "bias": 0.0,
        "deltaW": [
          0.0,
          0.0,
          0.0,
          0.0,
          0.0,
          0.0,
          0.0,
          0.0,
          0.0,
          0.0,
          0.0,
          0.0,
          0.0,
          0.0,
          0.0,
          0.0,
          0.0,
          0.0,
          0.0,
          0.0,
          0.0,
          0.0,
          0.0,
          0.0,
          0.0,
          0.0,
          0.0,
          0.0,
          0.0,
          0.0,
          0.0,
          0.0,
          0.0,
          0.0,
          0.0,
          0.0,
          0.0,
          0.0,
          0.0,
          0.0,
          0.0,
          0.0,
          0.0,
          0.0,
          0.0,
          0.0,
          0.0,
          0.0,
          0.0,
          0.0
        ],
        "weights": [
          -34.5068,
          14.9741,
          4.32097,
          7.91214,
          8.55437,
          9.79185,
          10.9568,
          5.44476,
          6.2593,
          -14.8462,
          -2.91882,
          10.5833,
          -0.552065,
          6.22493,
          -10.7884,
          -4.43272,
          -8.59402,
          -0.0539612,
          -7.88291,
          -22.5284,
          26.2964,
          6.802,
          -1.83686,
          -21.9613,
          -5.99937,
          15.042,
          -13.8886,
          1.43312,
          8.49261,
          -31.0976,
          -8.85738,
          34.7269,
          -3.13793,
          8.22359,
          -2.07649,
          -2.64433,
          18.7159,
          -1.95202,
          13.7694,
          7.12229,
          6.03407,
          -2.55881,
          -5.30459,
          28.3478,
          -1.82424,
          2.5475,
          2.23595,
          -20.6967,
          -22.7751,
          23.9475
        ]
      },
      {
        "bias": -8.62406e-102,
        "deltaW": [
          -6.55046e-103,
          -1.844e-108,
          -8.62406e-102,
          -8.62406e-102,
          -8.62406e-102,
          -8.62406e-102,
          -8.62406e-102,
          -7.48334e-106,
          -3.70258e-110,
          -8.62406e-102,
          -2.15661e-102,
          -8.62406e-102,
          -8.62406e-102,
          -8.62406e-102,
          -2.16057e-107,
          -8.62406e-102,
          -3.66488e-112,
          -8.62406e-102,
          -8.62406e-102,
          -3.25211e-120,
          -8.62406e-102,
          -8.62406e-102,
          -8.62406e-102,
          -8.62406e-102,
          -8.62406e-102,
          -1.21807e-116,
          -8.62406e-102,
          -8.62406e-102,
          -8.62406e-102,
          -8.62406e-102,
          -8.43044e-131,
          -1.49718e-140,
          -4.78413e-108,
          -8.62406e-102,
          -4.41008e-118,
          -8.62406e-102,
          -8.62406e-102,
          -8.62406e-102,
          -8.62382e-102,
          -8.62406e-102,
          -1.1517e-124,
          -8.62406e-102,
          -6.75015e-113,
          -3.89382e-108,
          -8.62406e-102,
          -8.62406e-102,
          -1.60901e-108,
          -4.615e-119,
          -6.21394e-119,
          -8.62406e-102
        ],
        "weights": [
          -44.2988,
          6.75761,
          2.8258,
          -20.5714,
          -21.3427,
          -81.8952,
          12.7985,
          9.52264,
          0.971273,
          5.28504,
          -13.284,
          23.2973,
          -5.30737,
          -25.7071,
          1.30915,
          11.0506,
          13.463,
          -68.1725,
          -24.8902,
          4.24827,
          2.48932,
          0.258546,
          0.124853,
          0.548436,
          65.6534,
          -0.745717,
          -2.45185,
          6.61345,
          -19.2769,
          9.40376,
          18.8288,
          -1.15606,
          13.0226,
          -6.59817,
          -13.5816,
          11.207,
          -117.784,
          -30.7319,
          66.8265,
          11.6657,
          -3.04213,
          -7.6216,
          -9.62982,
          13.8345,
          -3.81391,
          14.2588,
          -8.06347,
          6.14439,
          2.11147,
          -10.0256
        ]
      },
      {
        "bias": 0.0,
        "deltaW": [
          0.0,
          0.0,
          0.0,
          0.0,
          0.0,
          0.0,
          0.0,
          0.0,
          0.0,
          0.0,
          0.0,
          0.0,
          0.0,
          0.0,
          0.0,
          0.0,
          0.0,
          0.0,
          0.0,
          0.0,
          0.0,
          0.0,
          0.0,
          0.0,
          0.0,
          0.0,
          0.0,
          0.0,
          0.0,
          0.0,
          0.0,
          0.0,
          0.0,
          0.0,
          0.0,
          0.0,
          0.0,
          0.0,
          0.0,
          0.0,
          0.0,
          0.0,
          0.0,
          0.0,
          0.0,
          0.0,
          0.0,
          0.0,
          0.0,
          0.0
        ],
        "weights": [
          -5.16352,
          -2.87991,
          -16.2472,
          -0.147386,
          1.59119,
          -0.111133,
          11.2409,
          2.2984,
          -1.80675,
          -2.7543,
          -0.201571,
          -6.39593,
          -7.54217,
          -3.17746,
          -13.7103,
          -2.6511,
          -0.978331,
          0.0623045,
          1.1805,
          0.322287,
          62.8896,
          4.76485,
          -12.4017,
          1.17642,
          8.84274,
          -0.772749,
          7.614,
          2.63237,
          -10.2097,
          -10.4185,
          -10.0637,
          1.06226,
          -3.05878,
          7.10752,
          1.72515,
          5.59046,
          -10.5571,
          1.31449,
          8.7733,
          -3.21074,
          7.09375,
          -5.61369,
          -2.38399,
          9.79198,
          17.9198,
          16.8961,
          -4.44903,
          4.38865,
          -5.58646,
          0.330646
        ]
      },
      {
        "bias": 1.09655e-48,
        "deltaW": [
          8.3289e-50,
          2.34465e-55,
          1.09655e-48,
          1.09655e-48,
          1.09655e-48,
          1.09655e-48,
          1.09655e-48,
          9.51506e-53,
          4.70783e-57,
          1.09655e-48,
          2.74213e-49,
          1.09655e-48,
          1.09655e-48,
          1.09655e-48,
          2.74717e-54,
          1.09655e-48,
          4.65989e-59,
          1.09655e-48,
          1.09655e-48,
          4.13506e-67,
          1.09655e-48,
          1.09655e-48,
          1.09655e-48,
          1.09655e-48,
          1.09655e-48,
          1.54877e-63,
          1.09655e-48,
          1.09655e-48,
          1.09655e-48,
          1.09655e-48,
          1.07193e-77,
          1.90366e-87,
          6.08302e-55,
          1.09655e-48,
          5.60741e-65,
          1.09655e-48,
          1.09655e-48,
          1.09655e-48,
          1.09652e-48,
          1.09655e-48,
          1.46438e-71,
          1.09655e-48,
          8.58281e-60,
          4.95099e-55,
          1.09655e-48,
          1.09655e-48,
          2.04585e-55,
          5.86797e-66,
          7.90101e-66,
          1.09655e-48
        ],
        "weights": [
          -24.052,
          16.7253,
          32.9491,
          -9.32339,
          -10.7517,
          -19.7073,
          -6.3822,
          -2.10534,
          -15.6209,
          -25.8776,
          6.42435,
          4.76922,
          16.495,
          0.296361,
          10.9442,
          4.83481,
          6.01651,
          6.57222,
          4.14732,
          5.21116,
          -4.22274,
          -9.41052,
          -15.326,
          -13.3437,
          1.015,
          12.8859,
          40.4507,
          -6.98417,
          -25.3744,
          -8.19879,
          10.6102,
          44.7119,
          0.767058,
          1.70103,
          -11.8516,
          4.96421,
          -12.9977,
          -16.0618,
          10.5531,
          -10.6798,
          3.01108,
          -31.1638,
          1.7728,
          -0.444275,
          5.94117,
          1.36876,
          -8.76575,
          9.34689,
          11.8946,
          5.06552
        ]
      },
      {
        "bias": -3.84191e-24,
        "deltaW": [
          -2.91815e-25,
          -8.21481e-31,
          -3.84191e-24,
          -3.84191e-24,
          -3.84191e-24,
          -3.84191e-24,
          -3.84191e-24,
          -3.33374e-28,
          -1.64946e-32,
          -3.84191e-24,
          -9.60743e-25,
          -3.84191e-24,
          -3.84191e-24,
          -3.84191e-24,
          -9.62509e-30,
          -3.84191e-24,
          -1.63266e-34,
          -3.84191e-24,
          -3.84191e-24,
          -1.44878e-42,
          -3.84191e-24,
          -3.84191e-24,
          -3.84191e-24,
          -3.84191e-24,
          -3.84191e-24,
          -5.42635e-39,
          -3.84191e-24,
          -3.84191e-24,
          -3.84191e-24,
          -3.84191e-24,
          -3.75566e-53,
          -6.66975e-63,
          -2.13127e-30,
          -3.84191e-24,
          -1.96464e-40,
          -3.84191e-24,
          -3.84191e-24,
          -3.84191e-24,
          -3.84181e-24,
          -3.84191e-24,
          -5.13067e-47,
          -3.84191e-24,
          -3.00711e-35,
          -1.73465e-30,
          -3.84191e-24,
          -3.84191e-24,
          -7.16792e-31,
          -2.05593e-41,
          -2.76823e-41,
          -3.84191e-24
        ],
        "weights": [
          24.1905,
          19.9547,
          -3.94678,
          11.5493,
          11.3659,
          -8.63545,
          12.9201,
          36.8788,
          -22.557,
          -8.28174,
          -8.7153,
          -9.8686,
          -21.2762,
          14.296,
          -6.97689,
          -10.2444,
          11.2113,
          2.61757,
          -2.41341,
          25.8464,
          4.53544,
          11.3186,
          -0.158213,
          5.41805,
          6.56692,
          13.2697,
          -9.59094,
          -8.97026,
          -17.4826,
          6.30404,
          3.14154,
          -0.296358,
          43.382,
          1.94404,
          -38.9512,
          8.84787,
          -23.326,
          5.31435,
          -9.70892,
          25.9049,
          -27.1033,
          4.25312,
          5.48532,
          -25.4175,
          16.3697,
          -2.74421,
          7.43044,
          -12.7437,
          -20.8538,
          16.1958
        ]
      },
      {
        "bias": 0.0,
        "deltaW": [
          0.0,
          0.0,
          0.0,
          0.0,
          0.0,
          0.0,
          0.0,
          0.0,
          0.0,
          0.0,
          0.0,
          0.0,
          0.0,
          0.0,
          0.0,
          0.0,
          0.0,
          0.0,
          0.0,
          0.0,
          0.0,
          0.0,
          0.0,
          0.0,
          0.0,
          0.0,
          0.0,
          0.0,
          0.0,
          0.0,
          0.0,
          0.0,
          0.0,
          0.0,
          0.0,
          0.0,
          0.0,
          0.0,
          0.0,
          0.0,
          0.0,
          0.0,
          0.0,
          0.0,
          0.0,
          0.0,
          0.0,
          0.0,
          0.0,
          0.0
        ],
        "weights": [
          14.3452,
          16.3054,
          3.88977,
          3.56135,
          4.26421,
          21.8425,
          2.40462,
          26.3811,
          -18.6473,
          4.34991,
          -1.63128,
          -5.93187,
          5.81345,
          8.99663,
          -8.05141,
          -1.32375,
          -1.71649,
          2.27787,
          5.48427,
          -0.216295,
          -4.14342,
          9.45272,
          -1.45467,
          -2.18954,
          6.96632,
          5.18175,
          -17.7225,
          4.66287,
          4.96748,
          -0.859452,
          -0.592062,
          -1.67301,
          -7.05591,
          21.6609,
          18.6982,
          -4.2549,
          -9.48447,
          2.66231,
          14.263,
          -6.6337,
          -4.45422,
          4.00527,
          -15.3583,
          -7.35044,
          1.21699,
          2.20822,
          -11.1476,
          0.831989,
          26.6963,
          -12.2522
        ]
      },
      {
        "bias": 0.0,
        "deltaW": [
          0.0,
          0.0,
          0.0,
          0.0,
          0.0,
          0.0,
          0.0,
          0.0,
          0.0,
          0.0,
          0.0,
          0.0,
          0.0,
          0.0,
          0.0,
          0.0,
          0.0,
          0.0,
          0.0,
          0.0,
          0.0,
          0.0,
          0.0,
          0.0,
          0.0,
          0.0,
          0.0,
          0.0,
          0.0,
          0.0,
          0.0,
          0.0,
          0.0,
          0.0,
          0.0,
          0.0,
          0.0,
          0.0,
          0.0,
          0.0,
          0.0,
          0.0,
          0.0,
          0.0,
          0.0,
          0.0,
          0.0,
          0.0,
          0.0,
          0.0
        ],
        "weights": [
          15.5071,
          2.19437,
          14.4266,
          40.9538,
          42.3493,
          6.7627,
          -7.44166,
          6.64821,
          -16.8124,
          10.9756,
          8.33364,
          0.79801,
          4.13262,
          -1.66342,
          -1.63371,
          -11.8358,
          0.597048,
          5.70348,
          -0.846664,
          0.29974,
          18.7795,
          24.8516,
          11.1874,
          10.91,
          -8.70555,
          -75.2981,
          8.2325,
          5.84807,
          -3.41592,
          -0.245794,
          -1.01925,
          -9.23558,
          -2.12716,
          2.01737,
          3.97311,
          -7.38516,
          -6.28178,
          27.5104,
          -10.1538,
          -28.4687,
          21.5374,
          9.53144,
          -80.1458,
          1.4889,
          9.25546,
          -1.13319,
          7.37823,
          4.11695,
          -2.52037,
          -22.0526
        ]
      },
      {
        "bias": -8.70461e-31,
        "deltaW": [
          -6.61164e-32,
          -1.86123e-37,
          -8.70461e-31,
          -8.70461e-31,
          -8.70461e-31,
          -8.70461e-31,
          -8.70461e-31,
          -7.55323e-35,
          -3.73717e-39,
          -8.70461e-31,
          -2.17675e-31,
          -8.70461e-31,
          -8.70461e-31,
          -8.70461e-31,
          -2.18075e-36,
          -8.70461e-31,
          -3.69911e-41,
          -8.70461e-31,
          -8.70461e-31,
          -3.28249e-49,
          -8.70461e-31,
          -8.70461e-31,
          -8.70461e-31,
          -8.70461e-31,
          -8.70461e-31,
          -1.22945e-45,
          -8.70461e-31,
          -8.70461e-31,
          -8.70461e-31,
          -8.70461e-31,
          -8.50918e-60,
          -1.51116e-69,
          -4.82882e-37,
          -8.70461e-31,
          -4.45127e-47,
          -8.70461e-31,
          -8.70461e-31,
          -8.70461e-31,
          -8.70437e-31,
          -8.70461e-31,
          -1.16245e-53,
          -8.70461e-31,
          -6.81319e-42,
          -3.93019e-37,
          -8.70461e-31,
          -8.70461e-31,
          -1.62403e-37,
          -4.65811e-48,
          -6.27197e-48,
          -8.70461e-31
        ],
        "weights": [
          -17.2544,
          29.366,
          30.1772,
          15.886,
          15.8155,
          -19.4956,
          21.4603,
          7.57153,
          -19.5317,
          -17.0505,
          8.60122,
          -5.90848,
          -13.235,
          -9.01461,
          -6.39075,
          -2.3367,
          5.40398,
          16.5756,
          -5.18808,
          -15.7942,
          19.2415,
          -6.94491,
          -16.4939,
          1.07423,
          -41.1597,
          22.016,
          -19.1624,
          -4.8592,
          -15.2038,
          -28.9186,
          -0.637782,
          16.2187,
          -9.82033,
          27.5253,
          24.4695,
          -16.3405,
          -22.8512,
          2.46499,
          10.8875,
          0.0665404,
          -5.1037,
          -14.5651,
          2.49316,
          6.87895,
          37.4257,
          9.41225,
          13.1156,
          4.6615,
          -0.283466,
          6.98444
        ]
      },
      {
        "bias": 0.0,
        "deltaW": [
          0.0,
          0.0,
          0.0,
          0.0,
          0.0,
          0.0,
          0.0,
          0.0,
          0.0,
          0.0,
          0.0,
          0.0,
          0.0,
          0.0,
          0.0,
          0.0,
          0.0,
          0.0,
          0.0,
          0.0,
          0.0,
          0.0,
          0.0,
          0.0,
          0.0,
          0.0,
          0.0,
          0.0,
          0.0,
          0.0,
          0.0,
          0.0,
          0.0,
          0.0,
          0.0,
          0.0,
          0.0,
          0.0,
          0.0,
          0.0,
          0.0,
          0.0,
          0.0,
          0.0,
          0.0,
          0.0,
          0.0,
          0.0,
          0.0,
          0.0
        ],
        "weights": [
          9.75831,
          2.88204,
          -3.30748,
          47.279,
          47.348,
          -10.4683,
          -21.4608,
          -9.98791,
          -14.8671,
          35.4248,
          13.5632,
          -0.911597,
          4.0411,
          -1.09503,
          -7.28953,
          -6.2561,
          5.7718,
          0.0846235,
          5.00347,
          -2.50651,
          6.19279,
          -4.41893,
          1.97363,
          6.31269,
          -3.4997,
          10.7205,
          9.15495,
          -7.22965,
          -3.63735,
          -4.53507,
          8.61643,
          -9.79608,
          75.2786,
          -0.381403,
          -68.3542,
          14.678,
          -15.9928,
          25.4115,
          -5.77402,
          62.9184,
          -53.0393,
          1.67602,
          5.68985,
          7.59534,
          -14.5924,
          -8.26968,
          3.91695,
          -56.4254,
          -20.4325,
          12.1337
        ]
      },
      {
        "bias": 0.0,
        "deltaW": [
          0.0,
          0.0,
          0.0,
          0.0,
          0.0,
          0.0,
          0.0,
          0.0,
          0.0,
          0.0,
          0.0,
          0.0,
          0.0,
          0.0,
          0.0,
          0.0,
          0.0,
          0.0,
          0.0,
          0.0,
          0.0,
          0.0,
          0.0,
          0.0,
          0.0,
          0.0,
          0.0,
          0.0,
          0.0,
          0.0,
          0.0,
          0.0,
          0.0,
          0.0,
          0.0,
          0.0,
          0.0,
          0.0,
          0.0,
          0.0,
          0.0,
          0.0,
          0.0,
          0.0,
          0.0,
          0.0,
          0.0,
          0.0,
          0.0,
          0.0
        ],
        "weights": [
          -0.954328,
          -33.7053,
          14.4865,
          -15.5242,
          -16.2033,
          21.4636,
          28.2207,
          -22.1069,
          4.69615,
          9.71023,
          -3.68707,
          5.9316,
          -0.738983,
          -3.15751,
          1.62479,
          2.47197,
          -7.67341,
          -14.3192,
          18.2565,
          -10.8371,
          8.35355,
          -5.77282,
          15.8332,
          -24.3519,
          -5.01165,
          7.72475,
          10.0062,
          -4.35958,
          13.5266,
          -1.33125,
          5.42394,
          -10.3523,
          -12.5977,
          25.5481,
          17.4879,
          1.21798,
          5.42112,
          -5.54914,
          -0.3974,
          -18.9534,
          -6.63841,
          19.4292,
          -4.73032,
          40.2052,
          5.86249,
          18.3212,
          3.56192,
          -8.25428,
          -6.04215,
          -0.273626
        ]
      },
      {
        "bias": -6.04804e-44,
        "deltaW": [
          -4.59382e-45,
          -1.2932e-50,
          -6.04804e-44,
          -6.04804e-44,
          -6.04804e-44,
          -6.04804e-44,
          -6.04804e-44,
          -5.24805e-48,
          -2.59661e-52,
          -6.04804e-44,
          -1.51243e-44,
          -6.04804e-44,
          -6.04804e-44,
          -6.04804e-44,
          -1.51521e-49,
          -6.04804e-44,
          -2.57017e-54,
          -6.04804e-44,
          -6.04804e-44,
          -2.2807e-62,
          -6.04804e-44,
          -6.04803e-44,
          -6.04804e-44,
          -6.04804e-44,
          -6.04804e-44,
          -8.54229e-59,
          -6.04804e-44,
          -6.04804e-44,
          -6.04804e-44,
          -6.04804e-44,
          -5.91225e-73,
          -1.04997e-82,
          -3.3551e-50,
          -6.04804e-44,
          -3.09278e-60,
          -6.04804e-44,
          -6.04804e-44,
          -6.04804e-44,
          -6.04787e-44,
          -6.04804e-44,
          -8.07683e-67,
          -6.04804e-44,
          -4.73387e-55,
          -2.73073e-50,
          -6.04804e-44,
          -6.04804e-44,
          -1.12839e-50,
          -3.23649e-61,
          -4.35782e-61,
          -6.04804e-44
        ],
        "weights": [
          -11.7653,
          -55.9094,
          -4.95324,
          4.10975,
          3.43399,
          31.5007,
          -2.48243,
          -2.12204,
          27.1753,
          -11.225,
          -4.44616,
          -7.64027,
          -20.7103,
          -3.88472,
          -24.3585,
          -14.355,
          -11.0807,
          -7.06228,
          -3.61543,
          31.8526,
          0.582367,
          -2.10764,
          9.67752,
          -23.1902,
          -11.8456,
          42.1931,
          -20.7258,
          -28.0004,
          7.37717,
          -1.60318,
          -7.60353,
          -25.5276,
          15.1942,
          6.53833,
          -31.9021,
          -2.72277,
          20.4155,
          -3.31078,
          10.1106,
          18.1951,
          -7.36796,
          -18.3631,
          -28.7185,
          14.0779,
          -4.70516,
          7.67403,
          -5.86266,
          -6.92433,
          3.44694,
          0.831251
        ]
      },
      {
        "bias": 0.0,
        "deltaW": [
          0.0,
          0.0,
          0.0,
          0.0,
          0.0,
          0.0,
          0.0,
          0.0,
          0.0,
          0.0,
          0.0,
          0.0,
          0.0,
          0.0,
          0.0,
          0.0,
          0.0,
          0.0,
          0.0,
          0.0,
          0.0,
          0.0,
          0.0,
          0.0,
          0.0,
          0.0,
          0.0,
          0.0,
          0.0,
          0.0,
          0.0,
          0.0,
          0.0,
          0.0,
          0.0,
          0.0,
          0.0,
          0.0,
          0.0,
          0.0,
          0.0,
          0.0,
          0.0,
          0.0,
          0.0,
          0.0,
          0.0,
          0.0,
          0.0,
          0.0
        ],
        "weights": [
          -0.0785509,
          48.7791,
          -6.38842,
          25.4471,
          26.2868,
          -6.55544,
          -14.044,
          -19.4714,
          -4.99635,
          -8.04804,
          5.21047,
          -5.99132,
          35.562,
          3.80886,
          62.4437,
          -0.261054,
          -1.13713,
          1.03899,
          -3.49034,
          -30.5758,
          -8.40017,
          0.706893,
          -1.07772,
          -8.67228,
          -0.457738,
          -59.4811,
          -4.52672,
          30.5512,
          0.780719,
          14.6345,
          3.16962,
          6.83673,
          -4.88825,
          2.37244,
          5.73964,
          -11.8572,
          -1.97373,
          17.1213,
          -2.24269,
          -3.30069,
          3.14793,
          -2.94233,
          65.1775,
          -16.5249,
          -4.84123,
          3.9967,
          8.60421,
          -1.23195,
          7.72962,
          0.0557742
        ]
      },
      {
        "bias": 1.90743e-20,
        "deltaW": [
          1.4488e-21,
          4.07849e-27,
          1.90743e-20,
          1.90743e-20,
          1.90743e-20,
          1.90743e-20,
          1.90743e-20,
          1.65513e-24,
          8.18922e-29,
          1.90743e-20,
          4.7699e-21,
          1.90743e-20,
          1.90743e-20,
          1.90743e-20,
          4.77866e-26,
          1.90743e-20,
          8.10583e-31,
          1.90743e-20,
          1.90743e-20,
          7.19289e-39,
          1.90743e-20,
          1.90743e-20,
          1.90743e-20,
          1.90743e-20,
          1.90743e-20,
          2.69407e-35,
          1.90743e-20,
          1.90743e-20,
          1.90743e-20,
          1.90743e-20,
          1.86461e-49,
          3.3114e-59,
          1.05813e-26,
          1.90743e-20,
          9.75403e-37,
          1.90743e-20,
          1.90743e-20,
          1.90743e-20,
          1.90738e-20,
          1.90743e-20,
          2.54728e-43,
          1.90743e-20,
          1.49297e-31,
          8.61219e-27,
          1.90743e-20,
          1.90743e-20,
          3.55873e-27,
          1.02073e-37,
          1.37437e-37,
          1.90743e-20
        ],
        "weights": [
          0.893111,
          2.09217,
          0.0583106,
          1.97774,
          1.36662,
          2.30649,
          -0.592206,
          4.82888,
          -2.4697,
          3.39855,
          1.45435,
          -0.518051,
          0.978445,
          -0.271669,
          4.07853,
          2.7661,
          4.25237,
          0.328695,
          -0.452725,
          1.78662,
          -0.262343,
          1.31005,
          -2.7808,
          1.18885,
          -0.0784729,
          -1.93054,
          1.53945,
          0.768443,
          3.49332,
          -1.66595,
          2.27684,
          0.422544,
          -2.98983,
          0.981235,
          3.00069,
          0.337536,
          -2.18701,
          2.94865,
          -0.241108,
          1.66693,
          -0.376076,
          0.543346,
          1.62363,
          3.72292,
          0.252475,
          0.790107,
          4.82852,
          1.38648,
          2.17269,
          0.164228
        ]
      }
    ],
    [
      {
        "bias": 9.2337e-18,
        "deltaW": [
          9.2337e-18,
          9.2337e-18,
          9.49382e-79,
          1.12936e-35,
          9.23091e-18,
          9.2337e-18,
          9.2337e-18,
          9.2337e-18,
          9.2337e-18,
          1.08904e-26,
          9.2337e-18,
          1.51521e-39,
          9.25179e-48,
          6.9113e-46,
          9.2337e-18,
          2.9181e-29,
          9.2337e-18,
          9.2337e-18,
          2.42268e-108,
          9.2337e-18,
          1.23751e-54,
          9.2337e-18,
          9.2337e-18,
          9.2337e-18,
          2.17834e-36,
          9.2337e-18,
          9.2337e-18,
          6.31271e-50,
          9.2337e-18,
          9.2337e-18
        ],
        "weights": [
          2.65089,
          0.980751,
          -17.0177,
          -4.16986,
          6.0778,
          -2.76926,
          9.24159,
          -6.17325,
          4.95338,
          1.53602,
          -6.00628,
          4.92676,
          -0.564896,
          -4.76257,
          -5.38786,
          1.8088,
          -2.39967,
          0.601982,
          46.4037,
          -7.12017,
          14.2859,
          1.70804,
          -8.94653,
          8.8158,
          -4.96899,
          0.854371,
          -5.81713,
          -9.01819,
          2.47367,
          -9.12563
        ]
      },
      {
        "bias": -2.71815e-15,
        "deltaW": [
          -2.71815e-15,
          -2.71815e-15,
          -2.79472e-76,
          -3.32453e-33,
          -2.71733e-15,
          -2.71815e-15,
          -2.71815e-15,
          -2.71815e-15,
          -2.71815e-15,
          -3.20585e-24,
          -2.71815e-15,
          -4.46036e-37,
          1.52026e-39,
          1.18085e-39,
          -2.71815e-15,
          -8.59009e-27,
          -2.71815e-15,
          -2.71815e-15,
          -7.1317e-106,
          -2.71815e-15,
          -3.6429e-52,
          -2.71815e-15,
          -2.71815e-15,
          -2.71815e-15,
          -6.41244e-34,
          -2.71815e-15,
          -2.71815e-15,
          -1.68197e-47,
          -2.71815e-15,
          -2.71815e-15
        ],
        "weights": [
          0.347754,
          1.07235,
          0.230333,
          0.529015,
          0.112779,
          0.566363,
          -0.281989,
          0.844245,
          0.614529,
          0.677293,
          -0.137953,
          -0.383359,
          0.397466,
          0.839725,
          0.781633,
          -0.0429339,
          -0.242974,
          0.773042,
          0.859752,
          0.542281,
          0.230905,
          1.09883,
          1.89847,
          0.696394,
          0.161033,
          1.10943,
          0.702748,
          0.534604,
          0.128893,
          1.44623
        ]
      },
      {
        "bias": 3.44726e-23,
        "deltaW": [
          3.44726e-23,
          3.44726e-23,
          3.54437e-84,
          4.21629e-41,
          3.44622e-23,
          3.44726e-23,
          3.44726e-23,
          3.44726e-23,
          3.44726e-23,
          4.06578e-32,
          3.44726e-23,
          5.65679e-45,
          2.07014e-56,
          2.55341e-51,
          3.44726e-23,
          1.08943e-34,
          3.44726e-23,
          3.44726e-23,
          9.04469e-114,
          3.44726e-23,
          4.62006e-60,
          3.44726e-23,
          3.44726e-23,
          3.44726e-23,
          8.1325e-42,
          3.44726e-23,
          3.44726e-23,
          2.35676e-55,
          3.44726e-23,
          3.44726e-23
        ],
        "weights": [
          -6.65113,
          -27.5532,
          -27.5679,
          2.18103,
          6.60368,
          -3.37664,
          -16.1724,
          3.95827,
          23.0008,
          -17.1086,
          -7.41213,
          15.3728,
          -1.50654,
          -3.21522,
          1.61877,
          12.0414,
          19.1454,
          -9.78833,
          15.1147,
          -10.8667,
          -7.69943,
          25.3645,
          -0.685143,
          7.18847,
          -4.07728,
          25.6697,
          1.33037,
          28.4603,
          -17.3762,
          13.941
        ]
      },
      {
        "bias": 0.0,
        "deltaW": [
          0.0,
          0.0,
          0.0,
          0.0,
          0.0,
          0.0,
          0.0,
          0.0,
          0.0,
          0.0,
          0.0,
          0.0,
          0.0,
          0.0,
          0.0,
          0.0,
          0.0,
          0.0,
          0.0,
          0.0,
          0.0,
          0.0,
          0.0,
          0.0,
          0.0,
          0.0,
          0.0,
          0.0,
          0.0,
          0.0
        ],
        "weights": [
          5.52575,
          -11.6527,
          2.91931,
          3.04139,
          10.6762,
          -1.47856,
          -12.1795,
          -15.3004,
          -15.0576,
          -4.6258,
          26.4469,
          -11.8139,
          -13.3176,
          1.12205,
          -3.5127,
          -10.9345,
          39.5922,
          17.7957,
          32.985,
          24.3014,
          14.4107,
          -16.3959,
          3.79122,
          -13.6555,
          14.6044,
          -1.35089,
          0.54249,
          5.12467,
          -15.0021,
          21.5463
        ]
      },
      {
        "bias": 3.937e-23,
        "deltaW": [
          3.937e-23,
          3.937e-23,
          4.0479e-84,
          4.81528e-41,
          3.93581e-23,
          3.937e-23,
          3.937e-23,
          3.937e-23,
          3.937e-23,
          4.64339e-32,
          3.937e-23,
          6.46042e-45,
          2.36391e-56,
          2.91616e-51,
          3.937e-23,
          1.2442e-34,
          3.937e-23,
          3.937e-23,
          1.03296e-113,
          3.937e-23,
          5.27641e-60,
          3.937e-23,
          3.937e-23,
          3.937e-23,
          9.28784e-42,
          3.937e-23,
          3.937e-23,
          2.69157e-55,
          3.937e-23,
          3.937e-23
        ],
        "weights": [
          -8.19032,
          -0.69764,
          3.42533,
          -11.4829,
          6.45225,
          3.30841,
          3.2521,
          8.71045,
          0.583762,
          -0.0342765,
          -6.99791,
          -1.02227,
          -1.92908,
          7.71601,
          12.2145,
          1.67736,
          3.85485,
          5.03327,
          8.61612,
          1.78707,
          4.41964,
          -3.64189,
          3.16943,
          -10.4257,
          -0.891318,
          16.249,
          -4.45562,
          1.20021,
          1.79997,
          -2.9223
        ]
      },
      {
        "bias": 0.0,
        "deltaW": [
          0.0,
          0.0,
          0.0,
          0.0,
          0.0,
          0.0,
          0.0,
          0.0,
          0.0,
          0.0,
          0.0,
          0.0,
          0.0,
          0.0,
          0.0,
          0.0,
          0.0,
          0.0,
          0.0,
          0.0,
          0.0,
          0.0,
          0.0,
          0.0,
          0.0,
          0.0,
          0.0,
          0.0,
          0.0,
          0.0
        ],
        "weights": [
          14.8353,
          -17.104,
          18.2914,
          -1.27929,
          15.6601,
          -1.17935,
          -1.68176,
          3.28835,
          -2.95606,
          -9.0611,
          24.0293,
          -4.2734,
          -6.9808,
          1.66078,
          -7.27297,
          -2.72391,
          4.23197,
          1.64359,
          14.5158,
          19.0305,
          0.768828,
          1.15035,
          -9.7424,
          -17.2995,
          19.0125,
          25.8407,
          5.47885,
          9.08702,
          -8.72232,
          -3.51915
        ]
      },
      {
        "bias": -2.57884e-24,
        "deltaW": [
          -2.57884e-24,
          -2.57884e-24,
          -2.65149e-85,
          -3.15414e-42,
          -2.57806e-24,
          -2.57884e-24,
          -2.57884e-24,
          -2.57884e-24,
          -2.57884e-24,
          -3.04155e-33,
          -2.57884e-24,
          -4.23175e-46,
          -1.54843e-57,
          -1.91017e-52,
          -2.57884e-24,
          -8.14983e-36,
          -2.57884e-24,
          -2.57884e-24,
          -6.76619e-115,
          -2.57884e-24,
          -3.45619e-61,
          -2.57884e-24,
          -2.57884e-24,
          -2.57884e-24,
          -6.08379e-43,
          -2.57884e-24,
          -2.57884e-24,
          -1.76305e-56,
          -2.57884e-24,
          -2.57884e-24
        ],
        "weights": [
          5.92062,
          -4.3602,
          4.63642,
          0.874616,
          -6.36298,
          -7.50368,
          2.95075,
          4.82912,
          2.03262,
          -8.37606,
          22.4517,
          -1.44032,
          -1.56147,
          14.1903,
          -5.3135,
          7.93201,
          -14.6449,
          4.76671,
          3.84891,
          4.21119,
          1.10287,
          7.22053,
          4.91072,
          16.2831,
          -6.87136,
          -8.88683,
          -2.55967,
          4.90111,
          6.05916,
          -0.0175
        ]
      },
      {
        "bias": 3.75489e-17,
        "deltaW": [
          3.75489e-17,
          3.75489e-17,
          3.86066e-78,
          4.59254e-35,
          3.75375e-17,
          3.75489e-17,
          3.75489e-17,
          3.75489e-17,
          3.75489e-17,
          4.4286e-26,
          3.75489e-17,
          6.16159e-39,
          1.83727e-46,
          2.92399e-45,
          3.75489e-17,
          1.18665e-28,
          3.75489e-17,
          3.75489e-17,
          9.85182e-108,
          3.75489e-17,
          5.03234e-54,
          3.75489e-17,
          3.75489e-17,
          3.75489e-17,
          8.85822e-36,
          3.75489e-17,
          3.75489e-17,
          2.56707e-49,
          3.75489e-17,
          3.75489e-17
        ],
        "weights": [
          5.35225,
          -1.46604,
          -1.62414,
          1.76895,
          -2.74562,
          16.0658,
          -6.28464,
          -4.24068,
          2.66396,
          5.15041,
          7.13213,
          2.33184,
          3.91119,
          -2.5256,
          -3.95647,
          -6.35853,
          -1.17963,
          -3.93755,
          0.411084,
          2.92404,
          0.42988,
          0.0676908,
          -0.710522,
          -0.51941,
          1.88685,
          -2.32555,
          1.31891,
          8.25249,
          3.61769,
          4.16709
        ]
      },
      {
        "bias": -1.73119e-15,
        "deltaW": [
          -1.73119e-15,
          -1.73119e-15,
          -1.77996e-76,
          -2.11739e-33,
          -1.73067e-15,
          -1.73119e-15,
          -1.73119e-15,
          -1.73119e-15,
          -1.73119e-15,
          -2.04181e-24,
          -1.73119e-15,
          -2.8408e-37,
          3.13804e-40,
          2.43659e-40,
          -1.73119e-15,
          -5.47103e-27,
          -1.73119e-15,
          -1.73119e-15,
          -4.54218e-106,
          -1.73119e-15,
          -2.32016e-52,
          -1.73119e-15,
          -1.73119e-15,
          -1.73119e-15,
          -4.08408e-34,
          -1.73119e-15,
          -1.73119e-15,
          -1.14721e-47,
          -1.73119e-15,
          -1.73119e-15
        ],
        "weights": [
          0.258884,
          -0.123861,
          0.134439,
          0.680546,
          1.12338,
          0.692177,
          1.09821,
          0.827275,
          1.11187,
          0.899733,
          -0.0357553,
          0.373301,
          0.30441,
          0.939807,
          0.880675,
          0.624842,
          0.880449,
          0.67509,
          -0.165258,
          0.959361,
          1.14881,
          0.593583,
          0.0477445,
          0.681343,
          0.717013,
          0.797883,
          1.4129,
          0.241101,
          -0.00114059,
          0.59443
        ]
      },
      {
        "bias": 6.78419e-18,
        "deltaW": [
          6.78419e-18,
          6.78419e-18,
          6.9753e-79,
          8.29764e-36,
          6.78214e-18,
          6.78419e-18,
          6.78419e-18,
          6.78419e-18,
          6.78419e-18,
          8.00143e-27,
          6.78419e-18,
          1.11325e-39,
          -2.03841e-41,
          -1.58354e-41,
          6.78419e-18,
          2.14399e-29,
          6.78419e-18,
          6.78419e-18,
          1.77999e-108,
          6.78419e-18,
          9.09224e-55,
          6.78419e-18,
          6.78419e-18,
          6.78419e-18,
          1.60047e-36,
          6.78419e-18,
          6.78419e-18,
          3.79343e-47,
          6.78419e-18,
          6.78419e-18
        ],
        "weights": [
          -1.27694,
          -5.12992,
          5.89008,
          -3.78117,
          3.2274,
          -1.29708,
          -11.0913,
          31.6983,
          23.7096,
          -4.79809,
          -1.04858,
          2.4685,
